<?xml version="1.0"?>
<opencv_storage>
<cascade>
  <stageType>BOOST</stageType>
  <featureType>HAAR</featureType>
  <height>24</height>
  <width>24</width>
  <stageParams>
    <boostType>GAB</boostType>
    <minHitRate>9.9500000476837158e-01</minHitRate>
    <maxFalseAlarm>5.0000000000000000e-01</maxFalseAlarm>
    <weightTrimRate>9.4999998807907104e-01</weightTrimRate>
    <maxDepth>1</maxDepth>
    <maxWeakCount>100</maxWeakCount></stageParams>
  <featureParams>
    <maxCatCount>0</maxCatCount>
    <featSize>1</featSize>
    <mode>BASIC</mode></featureParams>
  <stageNum>16</stageNum>
  <stages>
    <!-- stage 0 -->
    <_>
      <maxWeakCount>2</maxWeakCount>
      <stageThreshold>-1.6649755835533142e-01</stageThreshold>
      <weakClassifiers>
        <_>
          <internalNodes>
            0 -1 27 -1.3138767331838608e-02</internalNodes>
          <leafValues>
            9.1061455011367798e-01 -7.9569894075393677e-01</leafValues></_>
        <_>
          <internalNodes>
            0 -1 10 1.3907007814850658e-04</internalNodes>
          <leafValues>
            6.2920135259628296e-01 -9.2334061861038208e-01</leafValues></_></weakClassifiers></_>
    <!-- stage 1 -->
    <_>
      <maxWeakCount>4</maxWeakCount>
      <stageThreshold>-1.0445585250854492e+00</stageThreshold>
      <weakClassifiers>
        <_>
          <internalNodes>
            0 -1 29 1.7518009990453720e-02</internalNodes>
          <leafValues>
            -8.1318682432174683e-01 8.9071035385131836e-01</leafValues></_>
        <_>
          <internalNodes>
            0 -1 31 -6.5161213278770447e-03</internalNodes>
          <leafValues>
            9.1380912065505981e-01 -5.0928568840026855e-01</leafValues></_>
        <_>
          <internalNodes>
            0 -1 38 8.7482359958812594e-04</internalNodes>
          <leafValues>
            -4.3215233087539673e-01 9.0208059549331665e-01</leafValues></_>
        <_>
          <internalNodes>
            0 -1 51 2.3693226277828217e-02</internalNodes>
          <leafValues>
            -6.2416666746139526e-01 7.5906002521514893e-01</leafValues></_></weakClassifiers></_>
    <!-- stage 2 -->
    <_>
      <maxWeakCount>2</maxWeakCount>
      <stageThreshold>-2.5658011436462402e-01</stageThreshold>
      <weakClassifiers>
        <_>
          <internalNodes>
            0 -1 18 -2.5370498187839985e-03</internalNodes>
          <leafValues>
            7.2774869203567505e-01 -7.1264368295669556e-01</leafValues></_>
        <_>
          <internalNodes>
            0 -1 4 -7.7927432954311371e-02</internalNodes>
          <leafValues>
            -1. 4.5606356859207153e-01</leafValues></_></weakClassifiers></_>
    <!-- stage 3 -->
    <_>
      <maxWeakCount>2</maxWeakCount>
      <stageThreshold>-2.5863915681838989e-01</stageThreshold>
      <weakClassifiers>
        <_>
          <internalNodes>
            0 -1 14 -1.1989779770374298e-02</internalNodes>
          <leafValues>
            7.3056995868682861e-01 -7.3255813121795654e-01</leafValues></_>
        <_>
          <internalNodes>
            0 -1 35 4.3322481215000153e-02</internalNodes>
          <leafValues>
            5.5268108844757080e-01 -9.8920911550521851e-01</leafValues></_></weakClassifiers></_>
    <!-- stage 4 -->
    <_>
      <maxWeakCount>5</maxWeakCount>
      <stageThreshold>-1.1171095371246338e+00</stageThreshold>
      <weakClassifiers>
        <_>
          <internalNodes>
            0 -1 9 -1.6922414302825928e-02</internalNodes>
          <leafValues>
            7.7900552749633789e-01 -6.8478262424468994e-01</leafValues></_>
        <_>
          <internalNodes>
            0 -1 36 1.5889320522546768e-02</internalNodes>
          <leafValues>
            4.8153692483901978e-01 -9.1979134082794189e-01</leafValues></_>
        <_>
          <internalNodes>
            0 -1 49 -3.2507139258086681e-03</internalNodes>
          <leafValues>
            5.2096283435821533e-01 -6.4606803655624390e-01</leafValues></_>
        <_>
          <internalNodes>
            0 -1 53 2.7804123237729073e-03</internalNodes>
          <leafValues>
            -6.7123818397521973e-01 6.4114958047866821e-01</leafValues></_>
        <_>
          <internalNodes>
            0 -1 16 3.6752742744283751e-05</internalNodes>
          <leafValues>
            4.0344235301017761e-01 -8.8402289152145386e-01</leafValues></_></weakClassifiers></_>
    <!-- stage 5 -->
    <_>
      <maxWeakCount>4</maxWeakCount>
      <stageThreshold>-6.2175726890563965e-01</stageThreshold>
      <weakClassifiers>
        <_>
          <internalNodes>
            0 -1 17 -5.3745424374938011e-03</internalNodes>
          <leafValues>
            6.9154226779937744e-01 -7.5609755516052246e-01</leafValues></_>
        <_>
          <internalNodes>
            0 -1 52 2.4448491632938385e-02</internalNodes>
          <leafValues>
            -5.6442201137542725e-01 6.9325464963912964e-01</leafValues></_>
        <_>
          <internalNodes>
            0 -1 21 -2.7270601131021976e-03</internalNodes>
          <leafValues>
            -9.6329927444458008e-01 4.1958788037300110e-01</leafValues></_>
        <_>
          <internalNodes>
            0 -1 23 2.8889166191220284e-02</internalNodes>
          <leafValues>
            4.0438485145568848e-01 -9.6750110387802124e-01</leafValues></_></weakClassifiers></_>
    <!-- stage 6 -->
    <_>
      <maxWeakCount>4</maxWeakCount>
      <stageThreshold>-6.6442757844924927e-01</stageThreshold>
      <weakClassifiers>
        <_>
          <internalNodes>
            0 -1 26 2.6123882271349430e-03</internalNodes>
          <leafValues>
            -7.4468082189559937e-01 5.3571426868438721e-01</leafValues></_>
        <_>
          <internalNodes>
            0 -1 61 -4.9448874779045582e-04</internalNodes>
          <leafValues>
            -9.6280950307846069e-01 4.2951521277427673e-01</leafValues></_>
        <_>
          <internalNodes>
            0 -1 44 -2.4226799607276917e-02</internalNodes>
          <leafValues>
            4.4034755229949951e-01 -6.9793486595153809e-01</leafValues></_>
        <_>
          <internalNodes>
            0 -1 42 -3.5659961402416229e-02</internalNodes>
          <leafValues>
            -9.8016303777694702e-01 3.4867292642593384e-01</leafValues></_></weakClassifiers></_>
    <!-- stage 7 -->
    <_>
      <maxWeakCount>3</maxWeakCount>
      <stageThreshold>-8.4335750341415405e-01</stageThreshold>
      <weakClassifiers>
        <_>
          <internalNodes>
            0 -1 48 -4.0128473192453384e-03</internalNodes>
          <leafValues>
            6.6502463817596436e-01 -7.4074071645736694e-01</leafValues></_>
        <_>
          <internalNodes>
            0 -1 43 9.0982539404649287e-05</internalNodes>
          <leafValues>
            4.8268771171569824e-01 -9.6561175584793091e-01</leafValues></_>
        <_>
          <internalNodes>
            0 -1 46 -1.1252835392951965e-03</internalNodes>
          <leafValues>
            6.1858230829238892e-01 -5.8530443906784058e-01</leafValues></_></weakClassifiers></_>
    <!-- stage 8 -->
    <_>
      <maxWeakCount>5</maxWeakCount>
      <stageThreshold>-8.9471042156219482e-01</stageThreshold>
      <weakClassifiers>
        <_>
          <internalNodes>
            0 -1 60 2.3499054368585348e-03</internalNodes>
          <leafValues>
            -5.9585493803024292e-01 7.5581395626068115e-01</leafValues></_>
        <_>
          <internalNodes>
            0 -1 32 -1.2427242472767830e-03</internalNodes>
          <leafValues>
            5.7953149080276489e-01 -5.4953461885452271e-01</leafValues></_>
        <_>
          <internalNodes>
            0 -1 22 -2.1458979696035385e-02</internalNodes>
          <leafValues>
            -9.2303746938705444e-01 3.6260518431663513e-01</leafValues></_>
        <_>
          <internalNodes>
            0 -1 39 -1.0690893977880478e-03</internalNodes>
          <leafValues>
            7.4240618944168091e-01 -4.4357708096504211e-01</leafValues></_>
        <_>
          <internalNodes>
            0 -1 5 -1.2035531835863367e-04</internalNodes>
          <leafValues>
            -9.9495422840118408e-01 3.3165103197097778e-01</leafValues></_></weakClassifiers></_>
    <!-- stage 9 -->
    <_>
      <maxWeakCount>5</maxWeakCount>
      <stageThreshold>-1.0466213226318359e+00</stageThreshold>
      <weakClassifiers>
        <_>
          <internalNodes>
            0 -1 54 -1.2832949869334698e-03</internalNodes>
          <leafValues>
            5.5357140302658081e-01 -7.7304965257644653e-01</leafValues></_>
        <_>
          <internalNodes>
            0 -1 47 -9.8448414355516434e-03</internalNodes>
          <leafValues>
            5.9107869863510132e-01 -5.3085851669311523e-01</leafValues></_>
        <_>
          <internalNodes>
            0 -1 11 9.2280730605125427e-02</internalNodes>
          <leafValues>
            3.5955944657325745e-01 -9.2986100912094116e-01</leafValues></_>
        <_>
          <internalNodes>
            0 -1 58 1.5271338634192944e-03</internalNodes>
          <leafValues>
            -4.2303639650344849e-01 8.3606272935867310e-01</leafValues></_>
        <_>
          <internalNodes>
            0 -1 5 6.3236147980205715e-05</internalNodes>
          <leafValues>
            3.8620063662528992e-01 -9.3833529949188232e-01</leafValues></_></weakClassifiers></_>
    <!-- stage 10 -->
    <_>
      <maxWeakCount>6</maxWeakCount>
      <stageThreshold>-1.2089397907257080e+00</stageThreshold>
      <weakClassifiers>
        <_>
          <internalNodes>
            0 -1 18 -3.4651863388717175e-03</internalNodes>
          <leafValues>
            6.0606062412261963e-01 -6.2874251604080200e-01</leafValues></_>
        <_>
          <internalNodes>
            0 -1 28 -1.3560834340751171e-03</internalNodes>
          <leafValues>
            6.6685271263122559e-01 -5.0386399030685425e-01</leafValues></_>
        <_>
          <internalNodes>
            0 -1 12 2.6957815862260759e-04</internalNodes>
          <leafValues>
            3.6034363508224487e-01 -9.2149239778518677e-01</leafValues></_>
        <_>
          <internalNodes>
            0 -1 41 -1.5045934123918414e-03</internalNodes>
          <leafValues>
            8.3475887775421143e-01 -4.0899488329887390e-01</leafValues></_>
        <_>
          <internalNodes>
            0 -1 45 7.1538952179253101e-03</internalNodes>
          <leafValues>
            -5.3499120473861694e-01 6.1594271659851074e-01</leafValues></_>
        <_>
          <internalNodes>
            0 -1 13 -5.8101775357499719e-04</internalNodes>
          <leafValues>
            5.5841708183288574e-01 -6.2532520294189453e-01</leafValues></_></weakClassifiers></_>
    <!-- stage 11 -->
    <_>
      <maxWeakCount>5</maxWeakCount>
      <stageThreshold>-1.1145913600921631e+00</stageThreshold>
      <weakClassifiers>
        <_>
          <internalNodes>
            0 -1 30 -3.6318968050181866e-03</internalNodes>
          <leafValues>
            5.7281553745269775e-01 -6.4779871702194214e-01</leafValues></_>
        <_>
          <internalNodes>
            0 -1 8 -4.3387848563725129e-05</internalNodes>
          <leafValues>
            -9.3333262205123901e-01 4.1650334000587463e-01</leafValues></_>
        <_>
          <internalNodes>
            0 -1 57 1.3076572213321924e-03</internalNodes>
          <leafValues>
            -6.7025887966156006e-01 4.1488227248191833e-01</leafValues></_>
        <_>
          <internalNodes>
            0 -1 62 -3.0716470064362511e-05</internalNodes>
          <leafValues>
            -9.0578156709671021e-01 3.3349022269248962e-01</leafValues></_>
        <_>
          <internalNodes>
            0 -1 28 -2.1705366671085358e-03</internalNodes>
          <leafValues>
            6.1004614830017090e-01 -5.4652738571166992e-01</leafValues></_></weakClassifiers></_>
    <!-- stage 12 -->
    <_>
      <maxWeakCount>5</maxWeakCount>
      <stageThreshold>-1.0839625597000122e+00</stageThreshold>
      <weakClassifiers>
        <_>
          <internalNodes>
            0 -1 3 -5.3560046944767237e-04</internalNodes>
          <leafValues>
            5.1515150070190430e-01 -7.7611941099166870e-01</leafValues></_>
        <_>
          <internalNodes>
            0 -1 25 3.4574454184621572e-03</internalNodes>
          <leafValues>
            -5.5627286434173584e-01 6.0534298419952393e-01</leafValues></_>
        <_>
          <internalNodes>
            0 -1 37 -1.5922498423606157e-03</internalNodes>
          <leafValues>
            4.3055102229118347e-01 -8.0087685585021973e-01</leafValues></_>
        <_>
          <internalNodes>
            0 -1 19 -1.2067530042259023e-04</internalNodes>
          <leafValues>
            -8.8853847980499268e-01 3.7827366590499878e-01</leafValues></_>
        <_>
          <internalNodes>
            0 -1 15 -6.5071890130639076e-03</internalNodes>
          <leafValues>
            7.7727246284484863e-01 -4.9058297276496887e-01</leafValues></_></weakClassifiers></_>
    <!-- stage 13 -->
    <_>
      <maxWeakCount>4</maxWeakCount>
      <stageThreshold>-6.3940817117691040e-01</stageThreshold>
      <weakClassifiers>
        <_>
          <internalNodes>
            0 -1 6 -5.2584524382837117e-05</internalNodes>
          <leafValues>
            -9.1752576828002930e-01 3.8805970549583435e-01</leafValues></_>
        <_>
          <internalNodes>
            0 -1 50 -1.1897886171936989e-02</internalNodes>
          <leafValues>
            6.6844248771667480e-01 -5.1466023921966553e-01</leafValues></_>
        <_>
          <internalNodes>
            0 -1 2 -3.3740306389518082e-04</internalNodes>
          <leafValues>
            -9.7472149133682251e-01 3.0353161692619324e-01</leafValues></_>
        <_>
          <internalNodes>
            0 -1 40 8.4435287863016129e-03</internalNodes>
          <leafValues>
            -6.1601161956787109e-01 4.8924627900123596e-01</leafValues></_></weakClassifiers></_>
    <!-- stage 14 -->
    <_>
      <maxWeakCount>5</maxWeakCount>
      <stageThreshold>-7.8934842348098755e-01</stageThreshold>
      <weakClassifiers>
        <_>
          <internalNodes>
            0 -1 1 -3.4501657355576754e-03</internalNodes>
          <leafValues>
            5.3636366128921509e-01 -7.1034485101699829e-01</leafValues></_>
        <_>
          <internalNodes>
            0 -1 7 -1.4691432625113521e-05</internalNodes>
          <leafValues>
            -9.0421777963638306e-01 3.0853798985481262e-01</leafValues></_>
        <_>
          <internalNodes>
            0 -1 24 -4.4990509748458862e-02</internalNodes>
          <leafValues>
            -9.6997308731079102e-01 2.4669118225574493e-01</leafValues></_>
        <_>
          <internalNodes>
            0 -1 20 4.6564640797441825e-05</internalNodes>
          <leafValues>
            2.1328221261501312e-01 -9.3153733015060425e-01</leafValues></_>
        <_>
          <internalNodes>
            0 -1 34 -7.3173735290765762e-04</internalNodes>
          <leafValues>
            3.6524081230163574e-01 -7.2282266616821289e-01</leafValues></_></weakClassifiers></_>
    <!-- stage 15 -->
    <_>
      <maxWeakCount>5</maxWeakCount>
      <stageThreshold>-6.2389564514160156e-01</stageThreshold>
      <weakClassifiers>
        <_>
          <internalNodes>
            0 -1 55 -8.4048850112594664e-05</internalNodes>
          <leafValues>
            -9.3258428573608398e-01 3.5507246851921082e-01</leafValues></_>
        <_>
          <internalNodes>
            0 -1 56 2.5200311938533559e-05</internalNodes>
          <leafValues>
            3.1827622652053833e-01 -8.9826768636703491e-01</leafValues></_>
        <_>
          <internalNodes>
            0 -1 0 -1.3546297326683998e-02</internalNodes>
          <leafValues>
            8.3170455694198608e-01 -4.2650902271270752e-01</leafValues></_>
        <_>
          <internalNodes>
            0 -1 33 7.7036945149302483e-03</internalNodes>
          <leafValues>
            -4.6038740873336792e-01 7.2675919532775879e-01</leafValues></_>
        <_>
          <internalNodes>
            0 -1 59 -5.1784785464406013e-03</internalNodes>
          <leafValues>
            8.2049185037612915e-01 -3.8090479373931885e-01</leafValues></_></weakClassifiers></_></stages>
  <features>
    <_>
      <rects>
        <_>
          0 0 2 12 -1.</_>
        <_>
          1 0 1 12 2.</_></rects>
      <tilted>0</tilted></_>
    <_>
      <rects>
        <_>
          0 0 4 5 -1.</_>
        <_>
          2 0 2 5 2.</_></rects>
      <tilted>0</tilted></_>
    <_>
      <rects>
        <_>
          0 0 8 1 -1.</_>
        <_>
          4 0 4 1 2.</_></rects>
      <tilted>0</tilted></_>
    <_>
      <rects>
        <_>
          0 0 4 4 -1.</_>
        <_>
          0 2 4 2 2.</_></rects>
      <tilted>0</tilted></_>
    <_>
      <rects>
        <_>
          0 0 13 24 -1.</_>
        <_>
          0 12 13 12 2.</_></rects>
      <tilted>0</tilted></_>
    <_>
      <rects>
        <_>
          0 1 1 2 -1.</_>
        <_>
          0 2 1 1 2.</_></rects>
      <tilted>0</tilted></_>
    <_>
      <rects>
        <_>
          0 1 1 3 -1.</_>
        <_>
          0 2 1 1 3.</_></rects>
      <tilted>0</tilted></_>
    <_>
      <rects>
        <_>
          0 2 1 10 -1.</_>
        <_>
          0 7 1 5 2.</_></rects>
      <tilted>0</tilted></_>
    <_>
      <rects>
        <_>
          0 2 2 2 -1.</_>
        <_>
          0 3 2 1 2.</_></rects>
      <tilted>0</tilted></_>
    <_>
      <rects>
        <_>
          0 2 4 12 -1.</_>
        <_>
          2 2 2 12 2.</_></rects>
      <tilted>0</tilted></_>
    <_>
      <rects>
        <_>
          0 4 1 20 -1.</_>
        <_>
          0 14 1 10 2.</_></rects>
      <tilted>0</tilted></_>
    <_>
      <rects>
        <_>
          0 4 24 19 -1.</_>
        <_>
          12 4 12 19 2.</_></rects>
      <tilted>0</tilted></_>
    <_>
      <rects>
        <_>
          0 7 1 16 -1.</_>
        <_>
          0 15 1 8 2.</_></rects>
      <tilted>0</tilted></_>
    <_>
      <rects>
        <_>
          0 14 9 1 -1.</_>
        <_>
          3 14 3 1 3.</_></rects>
      <tilted>0</tilted></_>
    <_>
      <rects>
        <_>
          0 14 9 7 -1.</_>
        <_>
          3 14 3 7 3.</_></rects>
      <tilted>0</tilted></_>
    <_>
      <rects>
        <_>
          0 16 7 3 -1.</_>
        <_>
          0 17 7 1 3.</_></rects>
      <tilted>0</tilted></_>
    <_>
      <rects>
        <_>
          0 17 1 6 -1.</_>
        <_>
          0 20 1 3 2.</_></rects>
      <tilted>0</tilted></_>
    <_>
      <rects>
        <_>
          0 17 4 7 -1.</_>
        <_>
          2 17 2 7 2.</_></rects>
      <tilted>0</tilted></_>
    <_>
      <rects>
        <_>
          0 19 4 2 -1.</_>
        <_>
          2 19 2 2 2.</_></rects>
      <tilted>0</tilted></_>
    <_>
      <rects>
        <_>
          0 20 1 2 -1.</_>
        <_>
          0 21 1 1 2.</_></rects>
      <tilted>0</tilted></_>
    <_>
      <rects>
        <_>
          0 20 2 2 -1.</_>
        <_>
          0 21 2 1 2.</_></rects>
      <tilted>0</tilted></_>
    <_>
      <rects>
        <_>
          0 23 22 1 -1.</_>
        <_>
          11 23 11 1 2.</_></rects>
      <tilted>0</tilted></_>
    <_>
      <rects>
        <_>
          1 0 22 7 -1.</_>
        <_>
          12 0 11 7 2.</_></rects>
      <tilted>0</tilted></_>
    <_>
      <rects>
        <_>
          1 1 22 6 -1.</_>
        <_>
          12 1 11 6 2.</_></rects>
      <tilted>0</tilted></_>
    <_>
      <rects>
        <_>
          1 17 18 5 -1.</_>
        <_>
          10 17 9 5 2.</_></rects>
      <tilted>0</tilted></_>
    <_>
      <rects>
        <_>
          1 19 4 4 -1.</_>
        <_>
          1 19 2 2 2.</_>
        <_>
          3 21 2 2 2.</_></rects>
      <tilted>0</tilted></_>
    <_>
      <rects>
        <_>
          1 20 4 4 -1.</_>
        <_>
          1 22 4 2 2.</_></rects>
      <tilted>0</tilted></_>
    <_>
      <rects>
        <_>
          2 0 16 4 -1.</_>
        <_>
          2 2 16 2 2.</_></rects>
      <tilted>0</tilted></_>
    <_>
      <rects>
        <_>
          2 1 2 4 -1.</_>
        <_>
          2 1 1 2 2.</_>
        <_>
          3 3 1 2 2.</_></rects>
      <tilted>0</tilted></_>
    <_>
      <rects>
        <_>
          2 20 17 4 -1.</_>
        <_>
          2 22 17 2 2.</_></rects>
      <tilted>0</tilted></_>
    <_>
      <rects>
        <_>
          3 0 2 4 -1.</_>
        <_>
          3 2 2 2 2.</_></rects>
      <tilted>0</tilted></_>
    <_>
      <rects>
        <_>
          3 1 2 6 -1.</_>
        <_>
          3 3 2 2 3.</_></rects>
      <tilted>0</tilted></_>
    <_>
      <rects>
        <_>
          3 17 1 6 -1.</_>
        <_>
          3 19 1 2 3.</_></rects>
      <tilted>0</tilted></_>
    <_>
      <rects>
        <_>
          3 19 2 4 -1.</_>
        <_>
          3 21 2 2 2.</_></rects>
      <tilted>0</tilted></_>
    <_>
      <rects>
        <_>
          6 0 4 4 -1.</_>
        <_>
          6 2 4 2 2.</_></rects>
      <tilted>0</tilted></_>
    <_>
      <rects>
        <_>
          6 0 9 22 -1.</_>
        <_>
          6 11 9 11 2.</_></rects>
      <tilted>0</tilted></_>
    <_>
      <rects>
        <_>
          6 0 15 22 -1.</_>
        <_>
          6 11 15 11 2.</_></rects>
      <tilted>0</tilted></_>
    <_>
      <rects>
        <_>
          6 0 17 12 -1.</_>
        <_>
          6 6 17 6 2.</_></rects>
      <tilted>0</tilted></_>
    <_>
      <rects>
        <_>
          6 15 1 3 -1.</_>
        <_>
          6 16 1 1 3.</_></rects>
      <tilted>0</tilted></_>
    <_>
      <rects>
        <_>
          6 16 1 2 -1.</_>
        <_>
          6 17 1 1 2.</_></rects>
      <tilted>0</tilted></_>
    <_>
      <rects>
        <_>
          6 20 5 4 -1.</_>
        <_>
          6 22 5 2 2.</_></rects>
      <tilted>0</tilted></_>
    <_>
      <rects>
        <_>
          7 15 2 2 -1.</_>
        <_>
          7 15 1 1 2.</_>
        <_>
          8 16 1 1 2.</_></rects>
      <tilted>0</tilted></_>
    <_>
      <rects>
        <_>
          8 9 16 11 -1.</_>
        <_>
          16 9 8 11 2.</_></rects>
      <tilted>0</tilted></_>
    <_>
      <rects>
        <_>
          10 0 14 1 -1.</_>
        <_>
          17 0 7 1 2.</_></rects>
      <tilted>0</tilted></_>
    <_>
      <rects>
        <_>
          15 14 9 10 -1.</_>
        <_>
          18 14 3 10 3.</_></rects>
      <tilted>0</tilted></_>
    <_>
      <rects>
        <_>
          15 18 3 6 -1.</_>
        <_>
          15 21 3 3 2.</_></rects>
      <tilted>0</tilted></_>
    <_>
      <rects>
        <_>
          16 18 2 3 -1.</_>
        <_>
          16 19 2 1 3.</_></rects>
      <tilted>0</tilted></_>
    <_>
      <rects>
        <_>
          17 0 6 7 -1.</_>
        <_>
          19 0 2 7 3.</_></rects>
      <tilted>0</tilted></_>
    <_>
      <rects>
        <_>
          17 0 4 4 -1.</_>
        <_>
          17 2 4 2 2.</_></rects>
      <tilted>0</tilted></_>
    <_>
      <rects>
        <_>
          17 3 6 2 -1.</_>
        <_>
          19 3 2 2 3.</_></rects>
      <tilted>0</tilted></_>
    <_>
      <rects>
        <_>
          18 1 4 6 -1.</_>
        <_>
          18 3 4 2 3.</_></rects>
      <tilted>0</tilted></_>
    <_>
      <rects>
        <_>
          18 4 6 11 -1.</_>
        <_>
          21 4 3 11 2.</_></rects>
      <tilted>0</tilted></_>
    <_>
      <rects>
        <_>
          18 16 6 7 -1.</_>
        <_>
          21 16 3 7 2.</_></rects>
      <tilted>0</tilted></_>
    <_>
      <rects>
        <_>
          18 20 4 4 -1.</_>
        <_>
          18 22 4 2 2.</_></rects>
      <tilted>0</tilted></_>
    <_>
      <rects>
        <_>
          19 0 5 4 -1.</_>
        <_>
          19 2 5 2 2.</_></rects>
      <tilted>0</tilted></_>
    <_>
      <rects>
        <_>
          20 0 2 1 -1.</_>
        <_>
          21 0 1 1 2.</_></rects>
      <tilted>0</tilted></_>
    <_>
      <rects>
        <_>
          20 0 2 2 -1.</_>
        <_>
          21 0 1 2 2.</_></rects>
      <tilted>0</tilted></_>
    <_>
      <rects>
        <_>
          20 0 4 5 -1.</_>
        <_>
          22 0 2 5 2.</_></rects>
      <tilted>0</tilted></_>
    <_>
      <rects>
        <_>
          20 2 2 2 -1.</_>
        <_>
          20 2 1 1 2.</_>
        <_>
          21 3 1 1 2.</_></rects>
      <tilted>0</tilted></_>
    <_>
      <rects>
        <_>
          20 2 3 2 -1.</_>
        <_>
          21 2 1 2 3.</_></rects>
      <tilted>0</tilted></_>
    <_>
      <rects>
        <_>
          20 3 4 1 -1.</_>
        <_>
          22 3 2 1 2.</_></rects>
      <tilted>0</tilted></_>
    <_>
      <rects>
        <_>
          23 0 1 12 -1.</_>
        <_>
          23 6 1 6 2.</_></rects>
      <tilted>0</tilted></_>
    <_>
      <rects>
        <_>
          23 3 1 2 -1.</_>
        <_>
          23 4 1 1 2.</_></rects>
      <tilted>0</tilted></_></features></cascade>
</opencv_storage>
