<?xml version="1.0"?>
<opencv_storage>
<stage10>
  <maxWeakCount>6</maxWeakCount>
  <stageThreshold>-1.2089397907257080e+00</stageThreshold>
  <weakClassifiers>
    <_>
      <internalNodes>
        0 -1 12824 -3.4651863388717175e-03</internalNodes>
      <leafValues>
        6.0606062412261963e-01 -6.2874251604080200e-01</leafValues></_>
    <_>
      <internalNodes>
        0 -1 26817 -1.3560834340751171e-03</internalNodes>
      <leafValues>
        6.6685271263122559e-01 -5.0386399030685425e-01</leafValues></_>
    <_>
      <internalNodes>
        0 -1 6694 2.6957815862260759e-04</internalNodes>
      <leafValues>
        3.6034363508224487e-01 -9.2149239778518677e-01</leafValues></_>
    <_>
      <internalNodes>
        0 -1 88539 -1.5045934123918414e-03</internalNodes>
      <leafValues>
        8.3475887775421143e-01 -4.0899488329887390e-01</leafValues></_>
    <_>
      <internalNodes>
        0 -1 143778 7.1538952179253101e-03</internalNodes>
      <leafValues>
        -5.3499120473861694e-01 6.1594271659851074e-01</leafValues></_>
    <_>
      <internalNodes>
        0 -1 11100 -5.8101775357499719e-04</internalNodes>
      <leafValues>
        5.5841708183288574e-01 -6.2532520294189453e-01</leafValues></_></weakClassifiers></stage10>
</opencv_storage>
